{"weights": {"encoder.0.weight": [[-0.24291399121284485, 0.2893672287464142, 0.23012058436870575, 0.6360746622085571, -0.46221405267715454, -0.6902589797973633, -0.08972929418087006, 0.5924796462059021], [-0.47293636202812195, 0.35822853446006775, 0.18084391951560974, 0.3855600357055664, -0.22624221444129944, -0.6235470771789551, -0.22001755237579346, 0.3949474096298218], [-0.574645459651947, 0.004413382150232792, -0.07132519781589508, -0.25859224796295166, -0.4657711386680603, -0.7135198712348938, -0.496544748544693, 0.15475578606128693], [0.7970714569091797, -0.2933751344680786, -0.07118920236825943, -0.020156383514404297, 0.5794703364372253, 0.45168912410736084, 0.4930901527404785, 0.1306818276643753], [-0.6303955912590027, 0.02424539066851139, 0.5312445759773254, 0.13821762800216675, -0.7082363963127136, -0.7148740887641907, -0.1145687997341156, -0.21738262474536896], [-1.3266081809997559, -0.3422480821609497, -0.33659711480140686, 0.08784997463226318, -0.2137899547815323, 0.2662379741668701, 1.8088312149047852, -0.45255303382873535]], "encoder.0.bias": [0.27077677845954895, 0.6151673197746277, 0.6289743185043335, -0.6869058012962341, 0.3019072413444519, 2.5806238651275635], "encoder.2.weight": [[0.6265819668769836, 0.7647680044174194, -0.9493897557258606, 0.35667216777801514, 0.3677876889705658, -0.07026072591543198], [-0.07334527373313904, -0.2484562247991562, 0.42964595556259155, -0.16515259444713593, 0.3986782133579254, 1.3399807214736938], [-0.6898459792137146, 0.23572267591953278, -0.3053705096244812, 1.0563937425613403, -0.2743667662143707, 1.0889875888824463]], "encoder.2.bias": [0.5544079542160034, -0.41624516248703003, 1.355817437171936], "decoder.0.weight": [[0.9379830956459045, -0.1703803986310959, -0.7978852987289429], [-0.08126889914274216, 1.1312267780303955, 0.36531582474708557], [-0.0357133150100708, -0.2638061046600342, 0.9385946393013], [-0.5999930500984192, 0.9031962156295776, -0.29969266057014465], [-0.17705383896827698, 0.4703161120414734, 0.073129802942276], [-0.06511646509170532, 0.09262336045503616, 0.8024756908416748]], "decoder.0.bias": [-0.030608972534537315, -0.7363192439079285, -0.14559029042720795, 1.0540560483932495, 0.23121429979801178, -0.24843990802764893], "decoder.2.weight": [[-0.0004681263817474246, -0.4829513430595398, 0.35462686419487, 0.4884305000305176, -0.3911740481853485, 0.30668875575065613], [0.8329985737800598, -0.21654801070690155, 0.18344561755657196, 0.4341906011104584, -0.16233235597610474, -0.03937443345785141], [0.5553260445594788, 0.11941304802894592, -0.21970608830451965, -0.5362622737884521, 0.35261741280555725, 0.16553522646427155], [0.5553303360939026, -0.13186825811862946, -0.1445694863796234, 0.2474568784236908, -0.2980811893939972, 0.34010422229766846], [-0.0005495152436196804, 0.019626522436738014, -0.10039316117763519, -0.6565449833869934, -0.13470667600631714, 0.57069993019104], [0.0003168063994962722, 0.5101509094238281, 0.017246996983885765, -0.7920458316802979, -0.2508276402950287, -0.02539563924074173], [6.443251095333835e-06, 0.6128672361373901, 0.08037920296192169, -0.7737213969230652, -0.05281830579042435, -0.20508237183094025], [-0.00013192401092965156, 0.050853557884693146, -0.22572991251945496, -0.40674057602882385, 0.2817962169647217, 0.12248942255973816]], "decoder.2.bias": [-0.07815635204315186, -0.02337619476020336, 0.08180268108844757, -0.1408630758523941, 0.3520125150680542, 0.221657395362854, -0.23193466663360596, 0.6179389953613281]}, "threshold": 0.9724555611610413}