{"fc1.weight": [[1.2243657112121582, 0.7152047157287598, 0.43358898162841797, -1.500247597694397, -1.4806557893753052, 0.4192197322845459, 1.060829758644104, 0.06099078059196472], [0.6370154619216919, 1.2912123203277588, 0.30452650785446167, -2.312143325805664, 0.4394853711128235, -0.31253165006637573, -0.4425327181816101, -0.8355755805969238], [-0.6068318486213684, -1.0393587350845337, -0.3218843340873718, -0.6969029903411865, -0.22667503356933594, 0.3389016091823578, 0.46967220306396484, 0.6674851775169373], [-1.083747386932373, 0.23070593178272247, -2.006352663040161, 1.6202791929244995, 1.458916425704956, -0.4194934666156769, -0.080052949488163, -0.22312593460083008], [0.6002727150917053, 0.6335023641586304, -0.0529644675552845, -0.9449127316474915, 0.7172146439552307, -0.3094152808189392, 0.06336653977632523, -0.6330369710922241], [-0.7633709907531738, 0.4519791603088379, -0.5030542016029358, 0.15047191083431244, 0.84365314245224, -0.4148010313510895, -0.16026657819747925, -0.23395006358623505], [-0.0351845882833004, -0.4926811158657074, -0.3812853693962097, -0.38626012206077576, -0.3107064366340637, 0.16242057085037231, -0.29457807540893555, 0.15553270280361176], [1.0783424377441406, 0.8731855750083923, 0.43353256583213806, 0.5246678590774536, -0.8755596876144409, 0.3685835599899292, 0.5936658382415771, -0.07643935084342957], [1.2019187211990356, 0.586747407913208, 0.4588852524757385, 0.24044451117515564, -1.0544764995574951, 0.4883100390434265, 0.8581898808479309, 0.14043423533439636], [-0.09606698155403137, -0.5147852897644043, -0.42432910203933716, -0.3959232568740845, -0.2442646473646164, 0.38805583119392395, 0.012918085791170597, 0.5586167573928833], [-0.5104905366897583, 0.635325014591217, 0.20559440553188324, 0.38053110241889954, 0.6246816515922546, -0.27064356207847595, -0.4443635046482086, -0.5620250105857849], [-0.16056105494499207, -0.4537869095802307, -0.6634166240692139, -0.4202386140823364, -0.5101920366287231, 0.7065407633781433, -0.6228341460227966, -0.5373240113258362], [1.3132896423339844, 0.7117981910705566, 0.31308963894844055, 0.06148397549986839, -1.090381145477295, 0.46661484241485596, 0.7872679233551025, -0.00934254378080368], [-0.5036998987197876, -0.35341912508010864, -0.37547650933265686, -0.5732647180557251, -0.33898937702178955, -0.44099971652030945, 0.38602185249328613, 0.43013057112693787], [0.2025378942489624, -0.5245771408081055, -0.3730127513408661, -0.19666168093681335, -0.40885862708091736, -0.2440234273672104, -0.3181760013103485, 0.07809583842754364], [-0.18065506219863892, -0.4685232639312744, -0.608731746673584, -0.3089818060398102, -0.22865670919418335, -0.34363463521003723, -0.20045550167560577, 0.04666491225361824]], "fc1.bias": [-0.5130071640014648, -0.7795233130455017, 2.9874720573425293, 0.7665790915489197, -0.8308691382408142, 0.4310015141963959, 2.7859652042388916, -1.2084790468215942, -1.4326115846633911, 2.242172956466675, -0.36029595136642456, 2.461515426635742, -0.8458389639854431, 2.436997890472412, 2.9661965370178223, 2.981503486633301], "fc2.weight": [[0.812516450881958, 0.9899324178695679, -0.637677013874054, 1.369035005569458, 0.38861680030822754, 0.2686758041381836, -0.42174986004829407, 0.22346307337284088, 0.17693591117858887, -0.49784624576568604, 0.10681673139333725, -0.08333219587802887, 0.25885677337646484, -0.01528775691986084, -0.406653493642807, -0.2282588928937912], [0.7078922986984253, 0.9123645424842834, -0.550895094871521, 1.1180988550186157, 0.40419039130210876, 0.21828915178775787, -0.35376036167144775, 0.2969455420970917, 0.24903729557991028, -0.31785377860069275, 0.17904327809810638, -0.03779581934213638, 0.28489068150520325, -0.009189006872475147, -0.3757539987564087, -0.23086705803871155], [0.7805002927780151, 1.0201454162597656, -0.6049649119377136, 1.2859609127044678, 0.41245678067207336, 0.2708211839199066, -0.4136613607406616, 0.29298868775367737, 0.2549069821834564, -0.4017406702041626, 0.20219165086746216, -0.06892447918653488, 0.3042259216308594, -0.017603540793061256, -0.40228694677352905, -0.23798488080501556], [0.8476583361625671, 1.0793944597244263, -0.6143133044242859, 1.2868717908859253, 0.5426048636436462, 0.2935337722301483, -0.42614465951919556, 0.4768880307674408, 0.4138430953025818, -0.33606716990470886, 0.396274596452713, -0.04642597585916519, 0.4503273665904999, -0.02913777343928814, -0.42479389905929565, -0.2934575378894806], [0.08475787192583084, -0.39766159653663635, 1.989047646522522, 0.25447365641593933, -0.5838635563850403, 0.11739811301231384, 1.8331485986709595, -0.603314995765686, -0.5089721083641052, 0.8646541237831116, -0.5985704064369202, 1.3973214626312256, -0.27705061435699463, 1.7352914810180664, 2.271648645401001, 2.303698778152466], [1.5910285711288452, 1.4406012296676636, -1.2297239303588867, 2.534111738204956, 0.8884788751602173, 1.2470957040786743, -0.7941421866416931, 1.1814087629318237, 1.0498847961425781, -0.5450851321220398, 0.9627789258956909, -0.1686650663614273, 1.1614465713500977, -0.12498478591442108, -0.7132021188735962, -0.5451536178588867], [1.6495840549468994, 1.7409745454788208, -0.9602111577987671, 2.7219913005828857, 1.171796441078186, 1.0517828464508057, -1.0030477046966553, 1.3651243448257446, 1.1279994249343872, -0.6847516298294067, 0.949151873588562, -0.2829849123954773, 1.39796781539917, -0.1471915990114212, -0.6694160103797913, -0.5669060349464417], [-0.005696520674973726, -0.10846284031867981, 2.5921850204467773, 0.2158467322587967, -0.4483916759490967, -0.05477483943104744, 2.1926379203796387, -0.7473256587982178, -0.5287666916847229, 1.646860957145691, -0.5064684748649597, 1.6389422416687012, -0.355889230966568, 1.8540464639663696, 2.453493118286133, 2.4335055351257324]], "fc2.bias": [0.02122560329735279, 0.03196655213832855, 0.02093159779906273, 0.021820517256855965, 0.7618169188499451, -0.14231286942958832, -0.12683872878551483, 0.9931640028953552], "fc3.weight": [[-0.4682314395904541, -0.6818070411682129, -0.6232750415802002, -0.9958657622337341, 4.018788814544678, -1.410025954246521, -1.5632367134094238, 4.133953094482422], [1.9556583166122437, 1.5134834051132202, 1.7624461650848389, 1.7009681463241577, -1.7273266315460205, 3.9526541233062744, 3.7628626823425293, -2.5438685417175293]], "fc3.bias": [0.043900929391384125, -0.021853558719158173]}